digraph Tree {
node [shape=box, style="filled", color="black"] ;
0 [label="Sore_throat <= 0.5\ngini = 0.308\nsamples = 4347\nvalue = [825, 3522]\nclass = Yes", fillcolor="#67b4eb"] ;
1 [label="Abroad_travel <= 0.5\ngini = 0.5\nsamples = 1183\nvalue = [602, 581]\nclass = No", fillcolor="#fefbf8"] ;
0 -> 1 [labeldistance=2.5, labelangle=45, headlabel="True"] ;
2 [label="Breathing_Problem <= 0.5\ngini = 0.399\nsamples = 831\nvalue = [602, 229]\nclass = No", fillcolor="#efb184"] ;
1 -> 2 ;
3 [label="Attended_Large_Gathering <= 0.5\ngini = 0.137\nsamples = 540\nvalue = [500, 40]\nclass = No", fillcolor="#e78b49"] ;
2 -> 3 ;
4 [label="gini = 0.0\nsamples = 445\nvalue = [445, 0]\nclass = No", fillcolor="#e58139"] ;
3 -> 4 ;
5 [label="Dry_Cough <= 0.5\ngini = 0.488\nsamples = 95\nvalue = [55, 40]\nclass = No", fillcolor="#f8ddc9"] ;
3 -> 5 ;
6 [label="Diabetes <= 0.5\ngini = 0.035\nsamples = 56\nvalue = [55, 1]\nclass = No", fillcolor="#e5833d"] ;
5 -> 6 ;
7 [label="gini = 0.0\nsamples = 40\nvalue = [40, 0]\nclass = No", fillcolor="#e58139"] ;
6 -> 7 ;
8 [label="Family_working_in_Public_Exposed_Places <= 0.5\ngini = 0.117\nsamples = 16\nvalue = [15, 1]\nclass = No", fillcolor="#e78946"] ;
6 -> 8 ;
9 [label="gini = 0.0\nsamples = 10\nvalue = [10, 0]\nclass = No", fillcolor="#e58139"] ;
8 -> 9 ;
10 [label="Heart_Disease <= 0.5\ngini = 0.278\nsamples = 6\nvalue = [5, 1]\nclass = No", fillcolor="#ea9a61"] ;
8 -> 10 ;
11 [label="gini = 0.0\nsamples = 3\nvalue = [3, 0]\nclass = No", fillcolor="#e58139"] ;
10 -> 11 ;
12 [label="gini = 0.444\nsamples = 3\nvalue = [2, 1]\nclass = No", fillcolor="#f2c09c"] ;
10 -> 12 ;
13 [label="gini = 0.0\nsamples = 39\nvalue = [0, 39]\nclass = Yes", fillcolor="#399de5"] ;
5 -> 13 ;
14 [label="Attended_Large_Gathering <= 0.5\ngini = 0.455\nsamples = 291\nvalue = [102, 189]\nclass = Yes", fillcolor="#a4d2f3"] ;
2 -> 14 ;
15 [label="Dry_Cough <= 0.5\ngini = 0.498\nsamples = 193\nvalue = [102, 91]\nclass = No", fillcolor="#fcf1ea"] ;
14 -> 15 ;
16 [label="gini = 0.0\nsamples = 33\nvalue = [33, 0]\nclass = No", fillcolor="#e58139"] ;
15 -> 16 ;
17 [label="Contact_with_COVID_Patient <= 0.5\ngini = 0.491\nsamples = 160\nvalue = [69, 91]\nclass = Yes", fillcolor="#cfe7f9"] ;
15 -> 17 ;
18 [label="Fever <= 0.5\ngini = 0.493\nsamples = 123\nvalue = [69, 54]\nclass = No", fillcolor="#f9e4d4"] ;
17 -> 18 ;
19 [label="gini = 0.0\nsamples = 20\nvalue = [20, 0]\nclass = No", fillcolor="#e58139"] ;
18 -> 19 ;
20 [label="Heart_Disease <= 0.5\ngini = 0.499\nsamples = 103\nvalue = [49, 54]\nclass = Yes", fillcolor="#edf6fd"] ;
18 -> 20 ;
21 [label="Hyper_Tension <= 0.5\ngini = 0.44\nsamples = 46\nvalue = [15, 31]\nclass = Yes", fillcolor="#99ccf2"] ;
20 -> 21 ;
22 [label="gini = 0.0\nsamples = 15\nvalue = [0, 15]\nclass = Yes", fillcolor="#399de5"] ;
21 -> 22 ;
23 [label="Visited_Public_Exposed_Places <= 0.5\ngini = 0.499\nsamples = 31\nvalue = [15, 16]\nclass = Yes", fillcolor="#f3f9fd"] ;
21 -> 23 ;
24 [label="gini = 0.408\nsamples = 21\nvalue = [15, 6]\nclass = No", fillcolor="#efb388"] ;
23 -> 24 ;
25 [label="gini = 0.0\nsamples = 10\nvalue = [0, 10]\nclass = Yes", fillcolor="#399de5"] ;
23 -> 25 ;
26 [label="Diabetes <= 0.5\ngini = 0.481\nsamples = 57\nvalue = [34, 23]\nclass = No", fillcolor="#f7d6bf"] ;
20 -> 26 ;
27 [label="Hyper_Tension <= 0.5\ngini = 0.426\nsamples = 39\nvalue = [27, 12]\nclass = No", fillcolor="#f1b991"] ;
26 -> 27 ;
28 [label="gini = 0.454\nsamples = 23\nvalue = [15, 8]\nclass = No", fillcolor="#f3c4a3"] ;
27 -> 28 ;
29 [label="gini = 0.375\nsamples = 16\nvalue = [12, 4]\nclass = No", fillcolor="#eeab7b"] ;
27 -> 29 ;
30 [label="Hyper_Tension <= 0.5\ngini = 0.475\nsamples = 18\nvalue = [7, 11]\nclass = Yes", fillcolor="#b7dbf6"] ;
26 -> 30 ;
31 [label="gini = 0.497\nsamples = 13\nvalue = [7, 6]\nclass = No", fillcolor="#fbede3"] ;
30 -> 31 ;
32 [label="gini = 0.0\nsamples = 5\nvalue = [0, 5]\nclass = Yes", fillcolor="#399de5"] ;
30 -> 32 ;
33 [label="gini = 0.0\nsamples = 37\nvalue = [0, 37]\nclass = Yes", fillcolor="#399de5"] ;
17 -> 33 ;
34 [label="gini = 0.0\nsamples = 98\nvalue = [0, 98]\nclass = Yes", fillcolor="#399de5"] ;
14 -> 34 ;
35 [label="gini = 0.0\nsamples = 352\nvalue = [0, 352]\nclass = Yes", fillcolor="#399de5"] ;
1 -> 35 ;
36 [label="Dry_Cough <= 0.5\ngini = 0.131\nsamples = 3164\nvalue = [223, 2941]\nclass = Yes", fillcolor="#48a4e7"] ;
0 -> 36 [labeldistance=2.5, labelangle=-45, headlabel="False"] ;
37 [label="Breathing_Problem <= 0.5\ngini = 0.39\nsamples = 490\nvalue = [130, 360]\nclass = Yes", fillcolor="#80c0ee"] ;
36 -> 37 ;
38 [label="Contact_with_COVID_Patient <= 0.5\ngini = 0.221\nsamples = 95\nvalue = [83, 12]\nclass = No", fillcolor="#e99356"] ;
37 -> 38 ;
39 [label="gini = 0.0\nsamples = 83\nvalue = [83, 0]\nclass = No", fillcolor="#e58139"] ;
38 -> 39 ;
40 [label="gini = 0.0\nsamples = 12\nvalue = [0, 12]\nclass = Yes", fillcolor="#399de5"] ;
38 -> 40 ;
41 [label="Attended_Large_Gathering <= 0.5\ngini = 0.21\nsamples = 395\nvalue = [47, 348]\nclass = Yes", fillcolor="#54aae9"] ;
37 -> 41 ;
42 [label="Family_working_in_Public_Exposed_Places <= 0.5\ngini = 0.363\nsamples = 197\nvalue = [47, 150]\nclass = Yes", fillcolor="#77bced"] ;
41 -> 42 ;
43 [label="Fever <= 0.5\ngini = 0.475\nsamples = 121\nvalue = [47, 74]\nclass = Yes", fillcolor="#b7dbf6"] ;
42 -> 43 ;
44 [label="gini = 0.0\nsamples = 11\nvalue = [11, 0]\nclass = No", fillcolor="#e58139"] ;
43 -> 44 ;
45 [label="Asthma <= 0.5\ngini = 0.44\nsamples = 110\nvalue = [36, 74]\nclass = Yes", fillcolor="#99cdf2"] ;
43 -> 45 ;
46 [label="gini = 0.0\nsamples = 32\nvalue = [0, 32]\nclass = Yes", fillcolor="#399de5"] ;
45 -> 46 ;
47 [label="Visited_Public_Exposed_Places <= 0.5\ngini = 0.497\nsamples = 78\nvalue = [36, 42]\nclass = Yes", fillcolor="#e3f1fb"] ;
45 -> 47 ;
48 [label="Heart_Disease <= 0.5\ngini = 0.444\nsamples = 42\nvalue = [28, 14]\nclass = No", fillcolor="#f2c09c"] ;
47 -> 48 ;
49 [label="Diabetes <= 0.5\ngini = 0.405\nsamples = 39\nvalue = [28, 11]\nclass = No", fillcolor="#efb287"] ;
48 -> 49 ;
50 [label="gini = 0.444\nsamples = 21\nvalue = [14, 7]\nclass = No", fillcolor="#f2c09c"] ;
49 -> 50 ;
51 [label="gini = 0.346\nsamples = 18\nvalue = [14, 4]\nclass = No", fillcolor="#eca572"] ;
49 -> 51 ;
52 [label="gini = 0.0\nsamples = 3\nvalue = [0, 3]\nclass = Yes", fillcolor="#399de5"] ;
48 -> 52 ;
53 [label="Diabetes <= 0.5\ngini = 0.346\nsamples = 36\nvalue = [8, 28]\nclass = Yes", fillcolor="#72b9ec"] ;
47 -> 53 ;
54 [label="gini = 0.0\nsamples = 21\nvalue = [0, 21]\nclass = Yes", fillcolor="#399de5"] ;
53 -> 54 ;
55 [label="Contact_with_COVID_Patient <= 0.5\ngini = 0.498\nsamples = 15\nvalue = [8, 7]\nclass = No", fillcolor="#fcefe6"] ;
53 -> 55 ;
56 [label="gini = 0.444\nsamples = 12\nvalue = [8, 4]\nclass = No", fillcolor="#f2c09c"] ;
55 -> 56 ;
57 [label="gini = 0.0\nsamples = 3\nvalue = [0, 3]\nclass = Yes", fillcolor="#399de5"] ;
55 -> 57 ;
58 [label="gini = 0.0\nsamples = 76\nvalue = [0, 76]\nclass = Yes", fillcolor="#399de5"] ;
42 -> 58 ;
59 [label="gini = 0.0\nsamples = 198\nvalue = [0, 198]\nclass = Yes", fillcolor="#399de5"] ;
41 -> 59 ;
60 [label="Fever <= 0.5\ngini = 0.067\nsamples = 2674\nvalue = [93, 2581]\nclass = Yes", fillcolor="#40a1e6"] ;
36 -> 60 ;
61 [label="Breathing_Problem <= 0.5\ngini = 0.257\nsamples = 389\nvalue = [59, 330]\nclass = Yes", fillcolor="#5cafea"] ;
60 -> 61 ;
62 [label="Attended_Large_Gathering <= 0.5\ngini = 0.245\nsamples = 49\nvalue = [42, 7]\nclass = No", fillcolor="#e9965a"] ;
61 -> 62 ;
63 [label="gini = 0.0\nsamples = 42\nvalue = [42, 0]\nclass = No", fillcolor="#e58139"] ;
62 -> 63 ;
64 [label="gini = 0.0\nsamples = 7\nvalue = [0, 7]\nclass = Yes", fillcolor="#399de5"] ;
62 -> 64 ;
65 [label="Abroad_travel <= 0.5\ngini = 0.095\nsamples = 340\nvalue = [17, 323]\nclass = Yes", fillcolor="#43a2e6"] ;
61 -> 65 ;
66 [label="Contact_with_COVID_Patient <= 0.5\ngini = 0.226\nsamples = 131\nvalue = [17, 114]\nclass = Yes", fillcolor="#57ace9"] ;
65 -> 66 ;
67 [label="Heart_Disease <= 0.5\ngini = 0.431\nsamples = 54\nvalue = [17, 37]\nclass = Yes", fillcolor="#94caf1"] ;
66 -> 67 ;
68 [label="Asthma <= 0.5\ngini = 0.5\nsamples = 34\nvalue = [17, 17]\nclass = No", fillcolor="#ffffff"] ;
67 -> 68 ;
69 [label="Diabetes <= 0.5\ngini = 0.466\nsamples = 27\nvalue = [17, 10]\nclass = No", fillcolor="#f4cbad"] ;
68 -> 69 ;
70 [label="gini = 0.337\nsamples = 14\nvalue = [11, 3]\nclass = No", fillcolor="#eca36f"] ;
69 -> 70 ;
71 [label="Visited_Public_Exposed_Places <= 0.5\ngini = 0.497\nsamples = 13\nvalue = [6, 7]\nclass = Yes", fillcolor="#e3f1fb"] ;
69 -> 71 ;
72 [label="gini = 0.0\nsamples = 4\nvalue = [0, 4]\nclass = Yes", fillcolor="#399de5"] ;
71 -> 72 ;
73 [label="gini = 0.444\nsamples = 9\nvalue = [6, 3]\nclass = No", fillcolor="#f2c09c"] ;
71 -> 73 ;
74 [label="gini = 0.0\nsamples = 7\nvalue = [0, 7]\nclass = Yes", fillcolor="#399de5"] ;
68 -> 74 ;
75 [label="gini = 0.0\nsamples = 20\nvalue = [0, 20]\nclass = Yes", fillcolor="#399de5"] ;
67 -> 75 ;
76 [label="gini = 0.0\nsamples = 77\nvalue = [0, 77]\nclass = Yes", fillcolor="#399de5"] ;
66 -> 76 ;
77 [label="gini = 0.0\nsamples = 209\nvalue = [0, 209]\nclass = Yes", fillcolor="#399de5"] ;
65 -> 77 ;
78 [label="Attended_Large_Gathering <= 0.5\ngini = 0.029\nsamples = 2285\nvalue = [34, 2251]\nclass = Yes", fillcolor="#3c9ee5"] ;
60 -> 78 ;
79 [label="Abroad_travel <= 0.5\ngini = 0.065\nsamples = 1013\nvalue = [34, 979]\nclass = Yes", fillcolor="#40a0e6"] ;
78 -> 79 ;
80 [label="Family_working_in_Public_Exposed_Places <= 0.5\ngini = 0.145\nsamples = 432\nvalue = [34, 398]\nclass = Yes", fillcolor="#4aa5e7"] ;
79 -> 80 ;
81 [label="Heart_Disease <= 0.5\ngini = 0.254\nsamples = 228\nvalue = [34, 194]\nclass = Yes", fillcolor="#5caeea"] ;
80 -> 81 ;
82 [label="gini = 0.0\nsamples = 83\nvalue = [0, 83]\nclass = Yes", fillcolor="#399de5"] ;
81 -> 82 ;
83 [label="Breathing_Problem <= 0.5\ngini = 0.359\nsamples = 145\nvalue = [34, 111]\nclass = Yes", fillcolor="#76bbed"] ;
81 -> 83 ;
84 [label="gini = 0.0\nsamples = 35\nvalue = [0, 35]\nclass = Yes", fillcolor="#399de5"] ;
83 -> 84 ;
85 [label="Hyper_Tension <= 0.5\ngini = 0.427\nsamples = 110\nvalue = [34, 76]\nclass = Yes", fillcolor="#92c9f1"] ;
83 -> 85 ;
86 [label="gini = 0.0\nsamples = 26\nvalue = [0, 26]\nclass = Yes", fillcolor="#399de5"] ;
85 -> 86 ;
87 [label="Diabetes <= 0.5\ngini = 0.482\nsamples = 84\nvalue = [34, 50]\nclass = Yes", fillcolor="#c0e0f7"] ;
85 -> 87 ;
88 [label="Visited_Public_Exposed_Places <= 0.5\ngini = 0.5\nsamples = 51\nvalue = [25, 26]\nclass = Yes", fillcolor="#f7fbfe"] ;
87 -> 88 ;
89 [label="gini = 0.494\nsamples = 27\nvalue = [15, 12]\nclass = No", fillcolor="#fae6d7"] ;
88 -> 89 ;
90 [label="gini = 0.486\nsamples = 24\nvalue = [10, 14]\nclass = Yes", fillcolor="#c6e3f8"] ;
88 -> 90 ;
91 [label="Contact_with_COVID_Patient <= 0.5\ngini = 0.397\nsamples = 33\nvalue = [9, 24]\nclass = Yes", fillcolor="#83c2ef"] ;
87 -> 91 ;
92 [label="gini = 0.495\nsamples = 20\nvalue = [9, 11]\nclass = Yes", fillcolor="#dbedfa"] ;
91 -> 92 ;
93 [label="gini = 0.0\nsamples = 13\nvalue = [0, 13]\nclass = Yes", fillcolor="#399de5"] ;
91 -> 93 ;
94 [label="gini = 0.0\nsamples = 204\nvalue = [0, 204]\nclass = Yes", fillcolor="#399de5"] ;
80 -> 94 ;
95 [label="gini = 0.0\nsamples = 581\nvalue = [0, 581]\nclass = Yes", fillcolor="#399de5"] ;
79 -> 95 ;
96 [label="gini = 0.0\nsamples = 1272\nvalue = [0, 1272]\nclass = Yes", fillcolor="#399de5"] ;
78 -> 96 ;
}
